Language model created by QuickLM on Sat Nov  9 08:53:46 EST 2013
Copyright (c) 1996-2010 Carnegie Mellon University and Alexander I. Rudnicky

The model is in standard ARPA format, designed by Doug Paul while he was at MITRE.

The code that was used to produce this language model is available in Open Source.
Please visit http://www.speech.cs.cmu.edu/tools/ for more information

The (fixed) discount mass is 0.5. The backoffs are computed using the ratio method.
This model based on a corpus of 37 sentences and 40 words

\data\
ngram 1=40
ngram 2=85
ngram 3=82

\1-grams:
-1.0184 </s> -0.3010
-1.0184 <s> -0.2303
-1.7415 A -0.2896
-2.5866 AGAIN -0.2573
-2.5866 BYE -0.2573
-2.1095 CAN -0.2873
-2.2856 CHUCK -0.2988
-2.1095 DATE -0.2472
-2.5866 DAY -0.2573
-1.8084 DO -0.2803
-2.5866 EVENING -0.2573
-1.9845 GOOD -0.2965
-2.2856 GOODBYE -0.2523
-2.2856 HELLO -0.2523
-2.5866 HI -0.2573
-2.5866 HOW -0.2999
-1.6835 IS -0.2434
-1.8876 IT -0.2472
-1.8084 JOKE -0.2573
-1.9845 KNOW -0.2815
-2.5866 LATE -0.2919
-2.5866 MANY -0.2976
-1.8084 ME -0.2885
-2.5866 MORNING -0.2573
-2.2856 NORRIS -0.2573
-2.5866 ONE -0.2573
-2.5866 REPEAT -0.2999
-1.9845 ROBIN -0.2573
-2.5866 SEE -0.2873
-2.2856 SORRY -0.2497
-1.8084 TELL -0.2942
-2.2856 THANK -0.2873
-2.1095 THANKS -0.2523
-2.5866 THAT -0.2573
-1.9845 THE -0.2919
-1.8876 TIME -0.2408
-1.8084 WHAT -0.2369
-2.5866 WHICH -0.2976
-2.5866 WHO -0.2919
-1.5074 YOU -0.2382

\2-grams:
-1.8692 <s> AGAIN 0.0000
-1.8692 <s> BYE 0.0000
-1.3921 <s> CAN 0.0000
-1.8692 <s> CHUCK 0.0000
-1.0911 <s> DO 0.0000
-1.3921 <s> GOOD -0.0969
-1.5682 <s> GOODBYE 0.0000
-1.5682 <s> HELLO 0.0000
-1.8692 <s> HI 0.0000
-1.8692 <s> HOW 0.0000
-1.8692 <s> MANY 0.0000
-1.8692 <s> SEE 0.0000
-1.5682 <s> SORRY 0.0000
-1.8692 <s> TELL 0.0000
-1.5682 <s> THANK 0.0000
-1.5682 <s> THANKS 0.0000
-1.2672 <s> WHAT -0.0669
-1.8692 <s> WHICH 0.0000
-1.8692 <s> WHO 0.0000
-1.8692 <s> YOU -0.2218
-1.1461 A GOOD -0.2430
-0.3680 A JOKE 0.0000
-0.3010 AGAIN </s> -0.3010
-0.3010 BYE </s> -0.3010
-0.3010 CAN YOU -0.1996
-0.3010 CHUCK NORRIS 0.0000
-0.7782 DATE </s> -0.3010
-0.4771 DATE IS -0.1761
-0.3010 DAY </s> -0.3010
-1.0792 DO TELL 0.0000
-0.3802 DO YOU -0.1249
-0.3010 EVENING </s> -0.3010
-0.9031 GOOD DAY 0.0000
-0.9031 GOOD EVENING 0.0000
-0.9031 GOOD MORNING 0.0000
-0.9031 GOOD ONE 0.0000
-0.6021 GOODBYE </s> -0.3010
-0.6021 GOODBYE ROBIN 0.0000
-0.6021 HELLO </s> -0.3010
-0.6021 HELLO ROBIN 0.0000
-0.3010 HI </s> -0.3010
-0.3010 HOW LATE 0.0000
-1.2041 IS </s> -0.3010
-1.2041 IS CHUCK 0.0000
-0.6021 IS IT -0.0792
-0.9031 IS THE 0.0000
-0.3979 IT </s> -0.3010
-1.0000 IT IS -0.2730
-0.3010 JOKE </s> -0.3010
-0.6021 KNOW A 0.0000
-0.9031 KNOW THE -0.0969
-0.9031 KNOW WHAT -0.2218
-0.3010 LATE IS -0.1761
-0.3010 MANY THANKS -0.1249
-0.3802 ME A -0.0580
-1.0792 ME THE -0.0969
-0.3010 MORNING </s> -0.3010
-0.3010 NORRIS </s> -0.3010
-0.3010 ONE </s> -0.3010
-0.3010 REPEAT THAT 0.0000
-0.3010 ROBIN </s> -0.3010
-0.3010 SEE YOU -0.2632
-0.6021 SORRY </s> -0.3010
-0.6021 SORRY WHAT -0.2632
-0.3010 TELL ME 0.0000
-0.3010 THANK YOU -0.2430
-0.4771 THANKS </s> -0.3010
-0.7782 THANKS ROBIN 0.0000
-0.3010 THAT </s> -0.3010
-0.9031 THE DATE -0.2218
-0.4260 THE TIME -0.1461
-0.5229 TIME </s> -0.3010
-1.0000 TIME IS -0.1761
-1.0000 TIME IT -0.2553
-1.0792 WHAT </s> -0.3010
-1.0792 WHAT DATE -0.1249
-0.7782 WHAT IS -0.2430
-0.7782 WHAT TIME -0.2041
-0.3010 WHICH DATE -0.1249
-0.3010 WHO IS -0.2730
-1.0792 YOU </s> -0.3010
-0.7782 YOU KNOW 0.0000
-1.3802 YOU REPEAT 0.0000
-1.3802 YOU ROBIN 0.0000
-0.7782 YOU TELL 0.0000

\3-grams:
-0.3010 <s> AGAIN </s>
-0.3010 <s> BYE </s>
-0.3010 <s> CAN YOU
-0.3010 <s> CHUCK NORRIS
-1.0792 <s> DO TELL
-0.3802 <s> DO YOU
-0.7782 <s> GOOD DAY
-0.7782 <s> GOOD EVENING
-0.7782 <s> GOOD MORNING
-0.6021 <s> GOODBYE </s>
-0.6021 <s> GOODBYE ROBIN
-0.6021 <s> HELLO </s>
-0.6021 <s> HELLO ROBIN
-0.3010 <s> HI </s>
-0.3010 <s> HOW LATE
-0.3010 <s> MANY THANKS
-0.3010 <s> SEE YOU
-0.6021 <s> SORRY </s>
-0.6021 <s> SORRY WHAT
-0.3010 <s> TELL ME
-0.3010 <s> THANK YOU
-0.6021 <s> THANKS </s>
-0.6021 <s> THANKS ROBIN
-0.9031 <s> WHAT DATE
-0.6021 <s> WHAT IS
-0.9031 <s> WHAT TIME
-0.3010 <s> WHICH DATE
-0.3010 <s> WHO IS
-0.3010 <s> YOU TELL
-0.3010 A GOOD ONE
-0.3010 A JOKE </s>
-0.7782 CAN YOU REPEAT
-0.4771 CAN YOU TELL
-0.3010 CHUCK NORRIS </s>
-0.3010 DATE IS IT
-0.3010 DO TELL ME
-0.3979 DO YOU KNOW
-1.0000 DO YOU TELL
-0.3010 GOOD DAY </s>
-0.3010 GOOD EVENING </s>
-0.3010 GOOD MORNING </s>
-0.3010 GOOD ONE </s>
-0.3010 GOODBYE ROBIN </s>
-0.3010 HELLO ROBIN </s>
-0.3010 HOW LATE IS
-0.3010 IS CHUCK NORRIS
-0.3010 IS IT </s>
-0.6021 IS THE DATE
-0.6021 IS THE TIME
-0.3010 IT IS </s>
-0.6021 KNOW A GOOD
-0.6021 KNOW A JOKE
-0.3010 KNOW THE TIME
-0.3010 KNOW WHAT TIME
-0.3010 LATE IS IT
-0.3010 MANY THANKS </s>
-0.3010 ME A JOKE
-0.3010 ME THE TIME
-0.3010 REPEAT THAT </s>
-0.3010 SEE YOU </s>
-0.3010 SORRY WHAT </s>
-0.3802 TELL ME A
-1.0792 TELL ME THE
-0.6021 THANK YOU </s>
-0.6021 THANK YOU ROBIN
-0.3010 THANKS ROBIN </s>
-0.3010 THE DATE </s>
-0.3010 THE TIME </s>
-0.3010 TIME IS IT
-0.3010 TIME IT IS
-0.3010 WHAT DATE IS
-0.3010 WHAT IS THE
-0.6021 WHAT TIME IS
-0.6021 WHAT TIME IT
-0.3010 WHICH DATE IS
-0.3010 WHO IS CHUCK
-0.6021 YOU KNOW A
-0.9031 YOU KNOW THE
-0.9031 YOU KNOW WHAT
-0.3010 YOU REPEAT THAT
-0.3010 YOU ROBIN </s>
-0.3010 YOU TELL ME

\end\
