Language model created by QuickLM on Wed Nov  6 16:17:15 EST 2013
Copyright (c) 1996-2010 Carnegie Mellon University and Alexander I. Rudnicky

The model is in standard ARPA format, designed by Doug Paul while he was at MITRE.

The code that was used to produce this language model is available in Open Source.
Please visit http://www.speech.cs.cmu.edu/tools/ for more information

The (fixed) discount mass is 0.5. The backoffs are computed using the ratio method.
This model based on a corpus of 15 sentences and 24 words

\data\
ngram 1=24
ngram 2=42
ngram 3=33

\1-grams:
-0.9510 </s> -0.3010
-0.9510 <s> -0.2458
-2.1271 AGAIN -0.2495
-2.1271 BYE -0.2495
-2.1271 CAN -0.2912
-1.8261 DATE -0.2308
-2.1271 GOOD -0.2978
-2.1271 HELLO -0.2495
-2.1271 HOW -0.2978
-1.4281 IS -0.2845
-1.6500 IT -0.2495
-2.1271 LATE -0.2845
-2.1271 MORNING -0.2495
-2.1271 REPEAT -0.2978
-2.1271 ROBIN -0.2495
-2.1271 SEE -0.2912
-1.8261 SORRY -0.2346
-2.1271 THANK -0.2912
-2.1271 THAT -0.2495
-1.8261 THE -0.2879
-1.8261 TIME -0.2308
-1.5250 WHAT -0.2231
-2.1271 WHICH -0.2945
-1.6500 YOU -0.2458

\2-grams:
-1.4771 <s> AGAIN 0.0000
-1.4771 <s> BYE 0.0000
-1.4771 <s> CAN 0.0000
-1.4771 <s> GOOD 0.0000
-1.4771 <s> HELLO 0.0000
-1.4771 <s> HOW 0.0000
-1.4771 <s> ROBIN 0.0000
-1.4771 <s> SEE 0.0000
-1.1761 <s> SORRY 0.0000
-1.4771 <s> THANK 0.0000
-1.0000 <s> WHAT -0.0969
-1.4771 <s> WHICH 0.0000
-0.3010 AGAIN </s> -0.3010
-0.3010 BYE </s> -0.3010
-0.3010 CAN YOU -0.2218
-0.6021 DATE </s> -0.3010
-0.6021 DATE IS -0.1461
-0.3010 GOOD MORNING 0.0000
-0.3010 HELLO </s> -0.3010
-0.3010 HOW LATE 0.0000
-0.5229 IS IT 0.0000
-0.6990 IS THE 0.0000
-0.3010 IT </s> -0.3010
-0.3010 LATE IS -0.1461
-0.3010 MORNING </s> -0.3010
-0.3010 REPEAT THAT 0.0000
-0.3010 ROBIN </s> -0.3010
-0.3010 SEE YOU -0.1249
-0.6021 SORRY </s> -0.3010
-0.6021 SORRY WHAT -0.2430
-0.3010 THANK YOU -0.1249
-0.3010 THAT </s> -0.3010
-0.6021 THE DATE -0.1761
-0.6021 THE TIME -0.1761
-0.6021 TIME </s> -0.3010
-0.6021 TIME IS -0.1461
-0.9031 WHAT </s> -0.3010
-0.6021 WHAT IS -0.2041
-0.9031 WHAT TIME -0.1761
-0.3010 WHICH DATE -0.1761
-0.4771 YOU </s> -0.3010
-0.7782 YOU REPEAT 0.0000

\3-grams:
-0.3010 <s> AGAIN </s>
-0.3010 <s> BYE </s>
-0.3010 <s> CAN YOU
-0.3010 <s> GOOD MORNING
-0.3010 <s> HELLO </s>
-0.3010 <s> HOW LATE
-0.3010 <s> ROBIN </s>
-0.3010 <s> SEE YOU
-0.6021 <s> SORRY </s>
-0.6021 <s> SORRY WHAT
-0.3010 <s> THANK YOU
-0.4771 <s> WHAT IS
-0.7782 <s> WHAT TIME
-0.3010 <s> WHICH DATE
-0.3010 CAN YOU REPEAT
-0.3010 DATE IS IT
-0.3010 GOOD MORNING </s>
-0.3010 HOW LATE IS
-0.3010 IS IT </s>
-0.6021 IS THE DATE
-0.6021 IS THE TIME
-0.3010 LATE IS IT
-0.3010 REPEAT THAT </s>
-0.3010 SEE YOU </s>
-0.3010 SORRY WHAT </s>
-0.3010 THANK YOU </s>
-0.3010 THE DATE </s>
-0.3010 THE TIME </s>
-0.3010 TIME IS IT
-0.3010 WHAT IS THE
-0.3010 WHAT TIME IS
-0.3010 WHICH DATE IS
-0.3010 YOU REPEAT THAT

\end\
