Language model created by QuickLM on Sat Nov  9 05:39:34 EST 2013
Copyright (c) 1996-2010 Carnegie Mellon University and Alexander I. Rudnicky

The model is in standard ARPA format, designed by Doug Paul while he was at MITRE.

The code that was used to produce this language model is available in Open Source.
Please visit http://www.speech.cs.cmu.edu/tools/ for more information

The (fixed) discount mass is 0.5. The backoffs are computed using the ratio method.
This model based on a corpus of 21 sentences and 32 words

\data\
ngram 1=32
ngram 2=58
ngram 3=53

\1-grams:
-1.0241 </s> -0.3010
-1.0241 <s> -0.2491
-1.7443 A -0.2931
-2.3464 AGAIN -0.2579
-2.0453 CAN -0.2891
-2.0453 CHUCK -0.2971
-1.8692 DATE -0.2425
-2.0453 DO -0.2891
-2.3464 GOOD -0.2991
-2.3464 HOW -0.2991
-1.5013 IS -0.2851
-1.7443 IT -0.2579
-1.8692 JOKE -0.2579
-2.0453 KNOW -0.2931
-2.3464 LATE -0.2871
-2.3464 MANY -0.2951
-2.0453 ME -0.2931
-2.0453 NORRIS -0.2579
-2.3464 ONE -0.2579
-2.3464 REPEAT -0.2991
-2.0453 ROBIN -0.2579
-2.0453 SORRY -0.2469
-2.0453 TELL -0.2971
-2.0453 THANK -0.2891
-1.8692 THANKS -0.2535
-2.3464 THAT -0.2579
-2.0453 THE -0.2911
-2.0453 TIME -0.2425
-1.6474 WHAT -0.2311
-2.3464 WHICH -0.2951
-2.3464 WHO -0.2871
-1.5682 YOU -0.2425

\2-grams:
-1.6232 <s> AGAIN 0.0000
-1.3222 <s> CAN 0.0000
-1.6232 <s> CHUCK 0.0000
-1.3222 <s> DO 0.0000
-1.6232 <s> HOW 0.0000
-1.6232 <s> MANY 0.0000
-1.3222 <s> SORRY 0.0000
-1.6232 <s> TELL 0.0000
-1.3222 <s> THANK 0.0000
-1.3222 <s> THANKS 0.0000
-1.0212 <s> WHAT -0.0792
-1.6232 <s> WHICH 0.0000
-1.6232 <s> WHO 0.0000
-0.9031 A GOOD 0.0000
-0.4260 A JOKE 0.0000
-0.3010 AGAIN </s> -0.3010
-0.3010 CAN YOU -0.2218
-0.3010 CHUCK NORRIS 0.0000
-0.7782 DATE </s> -0.3010
-0.4771 DATE IS -0.1549
-0.3010 DO YOU -0.2218
-0.3010 GOOD ONE 0.0000
-0.3010 HOW LATE 0.0000
-1.1461 IS CHUCK 0.0000
-0.5441 IS IT 0.0000
-0.8451 IS THE 0.0000
-0.3010 IT </s> -0.3010
-0.3010 JOKE </s> -0.3010
-0.3010 KNOW A 0.0000
-0.3010 LATE IS -0.1549
-0.3010 MANY THANKS -0.1249
-0.3010 ME A -0.0969
-0.3010 NORRIS </s> -0.3010
-0.3010 ONE </s> -0.3010
-0.3010 REPEAT THAT 0.0000
-0.3010 ROBIN </s> -0.3010
-0.6021 SORRY </s> -0.3010
-0.6021 SORRY WHAT -0.2553
-0.3010 TELL ME 0.0000
-0.3010 THANK YOU -0.2218
-0.4771 THANKS </s> -0.3010
-0.7782 THANKS ROBIN 0.0000
-0.3010 THAT </s> -0.3010
-0.6021 THE DATE -0.2218
-0.6021 THE TIME -0.1761
-0.6021 TIME </s> -0.3010
-0.6021 TIME IS -0.1549
-1.0000 WHAT </s> -0.3010
-1.0000 WHAT DATE -0.1249
-0.6990 WHAT IS -0.2341
-1.0000 WHAT TIME -0.1761
-0.3010 WHICH DATE -0.1249
-0.3010 WHO IS -0.2688
-1.0792 YOU </s> -0.3010
-0.7782 YOU KNOW 0.0000
-1.0792 YOU REPEAT 0.0000
-1.0792 YOU ROBIN 0.0000
-1.0792 YOU TELL 0.0000

\3-grams:
-0.3010 <s> AGAIN </s>
-0.3010 <s> CAN YOU
-0.3010 <s> CHUCK NORRIS
-0.3010 <s> DO YOU
-0.3010 <s> HOW LATE
-0.3010 <s> MANY THANKS
-0.6021 <s> SORRY </s>
-0.6021 <s> SORRY WHAT
-0.3010 <s> TELL ME
-0.3010 <s> THANK YOU
-0.6021 <s> THANKS </s>
-0.6021 <s> THANKS ROBIN
-0.9031 <s> WHAT DATE
-0.6021 <s> WHAT IS
-0.9031 <s> WHAT TIME
-0.3010 <s> WHICH DATE
-0.3010 <s> WHO IS
-0.3010 A GOOD ONE
-0.3010 A JOKE </s>
-0.6021 CAN YOU REPEAT
-0.6021 CAN YOU TELL
-0.3010 CHUCK NORRIS </s>
-0.3010 DATE IS IT
-0.3010 DO YOU KNOW
-0.3010 GOOD ONE </s>
-0.3010 HOW LATE IS
-0.3010 IS CHUCK NORRIS
-0.3010 IS IT </s>
-0.6021 IS THE DATE
-0.6021 IS THE TIME
-0.6021 KNOW A GOOD
-0.6021 KNOW A JOKE
-0.3010 LATE IS IT
-0.3010 MANY THANKS </s>
-0.3010 ME A JOKE
-0.3010 REPEAT THAT </s>
-0.3010 SORRY WHAT </s>
-0.3010 TELL ME A
-0.6021 THANK YOU </s>
-0.6021 THANK YOU ROBIN
-0.3010 THANKS ROBIN </s>
-0.3010 THE DATE </s>
-0.3010 THE TIME </s>
-0.3010 TIME IS IT
-0.3010 WHAT DATE IS
-0.3010 WHAT IS THE
-0.3010 WHAT TIME IS
-0.3010 WHICH DATE IS
-0.3010 WHO IS CHUCK
-0.3010 YOU KNOW A
-0.3010 YOU REPEAT THAT
-0.3010 YOU ROBIN </s>
-0.3010 YOU TELL ME

\end\
