Language model created by QuickLM on Wed Nov 13 01:14:14 EST 2013
Copyright (c) 1996-2010 Carnegie Mellon University and Alexander I. Rudnicky

The model is in standard ARPA format, designed by Doug Paul while he was at MITRE.

The code that was used to produce this language model is available in Open Source.
Please visit http://www.speech.cs.cmu.edu/tools/ for more information

The (fixed) discount mass is 0.5. The backoffs are computed using the ratio method.
This model based on a corpus of 12 sentences and 14 words

\data\
ngram 1=14
ngram 2=24
ngram 3=20

\1-grams:
-0.8751 </s> -0.3010
-0.8751 <s> -0.2218
-1.9542 DAY -0.2389
-1.9542 EVENING -0.2389
-1.4771 GOOD -0.2863
-1.9542 GOODBYE -0.2389
-1.9542 HELLO -0.2389
-1.9542 MANY -0.2863
-1.9542 MORNING -0.2389
-1.4771 ROBIN -0.2389
-1.9542 SEE -0.2863
-1.6532 THANK -0.2863
-1.4771 THANKS -0.2218
-1.4771 YOU -0.2218

\2-grams:
-0.9031 <s> GOOD 0.0000
-1.3802 <s> GOODBYE 0.0000
-1.3802 <s> HELLO 0.0000
-1.3802 <s> MANY 0.0000
-1.3802 <s> ROBIN 0.0000
-1.3802 <s> SEE 0.0000
-1.0792 <s> THANK 0.0000
-1.0792 <s> THANKS 0.0000
-0.3010 DAY </s> -0.3010
-0.3010 EVENING </s> -0.3010
-0.7782 GOOD DAY 0.0000
-0.7782 GOOD EVENING 0.0000
-0.7782 GOOD MORNING 0.0000
-0.3010 GOODBYE </s> -0.3010
-0.3010 HELLO </s> -0.3010
-0.3010 MANY THANKS -0.1249
-0.3010 MORNING </s> -0.3010
-0.3010 ROBIN </s> -0.3010
-0.3010 SEE YOU -0.1249
-0.3010 THANK YOU 0.0000
-0.4771 THANKS </s> -0.3010
-0.7782 THANKS ROBIN 0.0000
-0.4771 YOU </s> -0.3010
-0.7782 YOU ROBIN 0.0000

\3-grams:
-0.7782 <s> GOOD DAY
-0.7782 <s> GOOD EVENING
-0.7782 <s> GOOD MORNING
-0.3010 <s> GOODBYE </s>
-0.3010 <s> HELLO </s>
-0.3010 <s> MANY THANKS
-0.3010 <s> ROBIN </s>
-0.3010 <s> SEE YOU
-0.3010 <s> THANK YOU
-0.6021 <s> THANKS </s>
-0.6021 <s> THANKS ROBIN
-0.3010 GOOD DAY </s>
-0.3010 GOOD EVENING </s>
-0.3010 GOOD MORNING </s>
-0.3010 MANY THANKS </s>
-0.3010 SEE YOU </s>
-0.6021 THANK YOU </s>
-0.6021 THANK YOU ROBIN
-0.3010 THANKS ROBIN </s>
-0.3010 YOU ROBIN </s>

\end\
