Language model created by QuickLM on Thu Apr 10 16:44:33 EDT 2014
Copyright (c) 1996-2010 Carnegie Mellon University and Alexander I. Rudnicky

The model is in standard ARPA format, designed by Doug Paul while he was at MITRE.

The code that was used to produce this language model is available in Open Source.
Please visit http://www.speech.cs.cmu.edu/tools/ for more information

The (fixed) discount mass is 0.5. The backoffs are computed using the ratio method.
This model based on a corpus of 12 sentences and 18 words

\data\
ngram 1=18
ngram 2=29
ngram 3=20

\1-grams:
-0.8653 </s> -0.3010
-0.8653 <s> -0.2374
-1.9445 AGAIN -0.2374
-1.9445 CAN -0.2860
-1.9445 DAY -0.2374
-1.9445 EVENING -0.2374
-1.4674 GOOD -0.2860
-1.9445 GOODBYE -0.2374
-1.9445 HELLO -0.2374
-1.9445 LISA -0.2374
-1.9445 MORNING -0.2374
-1.9445 REPEAT -0.2961
-1.9445 SEE -0.2860
-1.9445 SORRY -0.2374
-1.9445 THANK -0.2860
-1.9445 THANKS -0.2374
-1.9445 THAT -0.2374
-1.4674 YOU -0.2316

\2-grams:
-1.3802 <s> AGAIN 0.0000
-1.3802 <s> CAN 0.0000
-0.9031 <s> GOOD 0.0000
-1.3802 <s> GOODBYE 0.0000
-1.3802 <s> HELLO 0.0000
-1.3802 <s> LISA 0.0000
-1.3802 <s> SEE 0.0000
-1.3802 <s> SORRY 0.0000
-1.3802 <s> THANK 0.0000
-1.3802 <s> THANKS 0.0000
-0.3010 AGAIN </s> -0.3010
-0.3010 CAN YOU -0.2218
-0.3010 DAY </s> -0.3010
-0.3010 EVENING </s> -0.3010
-0.7782 GOOD DAY 0.0000
-0.7782 GOOD EVENING 0.0000
-0.7782 GOOD MORNING 0.0000
-0.3010 GOODBYE </s> -0.3010
-0.3010 HELLO </s> -0.3010
-0.3010 LISA </s> -0.3010
-0.3010 MORNING </s> -0.3010
-0.3010 REPEAT THAT 0.0000
-0.3010 SEE YOU -0.1249
-0.3010 SORRY </s> -0.3010
-0.3010 THANK YOU -0.1249
-0.3010 THANKS </s> -0.3010
-0.3010 THAT </s> -0.3010
-0.4771 YOU </s> -0.3010
-0.7782 YOU REPEAT 0.0000

\3-grams:
-0.3010 <s> AGAIN </s>
-0.3010 <s> CAN YOU
-0.7782 <s> GOOD DAY
-0.7782 <s> GOOD EVENING
-0.7782 <s> GOOD MORNING
-0.3010 <s> GOODBYE </s>
-0.3010 <s> HELLO </s>
-0.3010 <s> LISA </s>
-0.3010 <s> SEE YOU
-0.3010 <s> SORRY </s>
-0.3010 <s> THANK YOU
-0.3010 <s> THANKS </s>
-0.3010 CAN YOU REPEAT
-0.3010 GOOD DAY </s>
-0.3010 GOOD EVENING </s>
-0.3010 GOOD MORNING </s>
-0.3010 REPEAT THAT </s>
-0.3010 SEE YOU </s>
-0.3010 THANK YOU </s>
-0.3010 YOU REPEAT THAT

\end\
