Language model created by QuickLM on Wed Nov 13 17:11:01 EST 2013
Copyright (c) 1996-2010 Carnegie Mellon University and Alexander I. Rudnicky

The model is in standard ARPA format, designed by Doug Paul while he was at MITRE.

The code that was used to produce this language model is available in Open Source.
Please visit http://www.speech.cs.cmu.edu/tools/ for more information

The (fixed) discount mass is 0.5. The backoffs are computed using the ratio method.
This model based on a corpus of 13 sentences and 19 words

\data\
ngram 1=19
ngram 2=31
ngram 3=22

\1-grams:
-0.8683 </s> -0.3010
-0.8683 <s> -0.2378
-1.9823 AGAIN -0.2378
-1.9823 CAN -0.2872
-1.9823 DAY -0.2378
-1.9823 EVENING -0.2378
-1.5051 GOOD -0.2872
-1.9823 GOODBYE -0.2378
-1.9823 HELLO -0.2378
-1.9823 JAMES -0.2378
-1.9823 MORNING -0.2378
-1.9823 REPEAT -0.2965
-1.9823 SEE -0.2872
-1.6812 SORRY -0.2326
-1.9823 THANK -0.2872
-1.9823 THANKS -0.2378
-1.9823 THAT -0.2378
-1.9823 WHAT -0.2378
-1.5051 YOU -0.2326

\2-grams:
-1.4150 <s> AGAIN 0.0000
-1.4150 <s> CAN 0.0000
-0.9379 <s> GOOD 0.0000
-1.4150 <s> GOODBYE 0.0000
-1.4150 <s> HELLO 0.0000
-1.4150 <s> JAMES 0.0000
-1.4150 <s> SEE 0.0000
-1.1139 <s> SORRY 0.0000
-1.4150 <s> THANK 0.0000
-1.4150 <s> THANKS 0.0000
-0.3010 AGAIN </s> -0.3010
-0.3010 CAN YOU -0.2218
-0.3010 DAY </s> -0.3010
-0.3010 EVENING </s> -0.3010
-0.7782 GOOD DAY 0.0000
-0.7782 GOOD EVENING 0.0000
-0.7782 GOOD MORNING 0.0000
-0.3010 GOODBYE </s> -0.3010
-0.3010 HELLO </s> -0.3010
-0.3010 JAMES </s> -0.3010
-0.3010 MORNING </s> -0.3010
-0.3010 REPEAT THAT 0.0000
-0.3010 SEE YOU -0.1249
-0.6021 SORRY </s> -0.3010
-0.6021 SORRY WHAT 0.0000
-0.3010 THANK YOU -0.1249
-0.3010 THANKS </s> -0.3010
-0.3010 THAT </s> -0.3010
-0.3010 WHAT </s> -0.3010
-0.4771 YOU </s> -0.3010
-0.7782 YOU REPEAT 0.0000

\3-grams:
-0.3010 <s> AGAIN </s>
-0.3010 <s> CAN YOU
-0.7782 <s> GOOD DAY
-0.7782 <s> GOOD EVENING
-0.7782 <s> GOOD MORNING
-0.3010 <s> GOODBYE </s>
-0.3010 <s> HELLO </s>
-0.3010 <s> JAMES </s>
-0.3010 <s> SEE YOU
-0.6021 <s> SORRY </s>
-0.6021 <s> SORRY WHAT
-0.3010 <s> THANK YOU
-0.3010 <s> THANKS </s>
-0.3010 CAN YOU REPEAT
-0.3010 GOOD DAY </s>
-0.3010 GOOD EVENING </s>
-0.3010 GOOD MORNING </s>
-0.3010 REPEAT THAT </s>
-0.3010 SEE YOU </s>
-0.3010 SORRY WHAT </s>
-0.3010 THANK YOU </s>
-0.3010 YOU REPEAT THAT

\end\
